********************** gpu module *******************************

********************** Initalization and Information *******************************

---- Function ----	
gpu::getCudaEnabledDeviceCount
gpu::setDevice
gpu::getDevice
gpu::resetDevice
gpu::FeatureSet
gpu::TargetArchs

---- OOP ----	
gpu::DeviceInfo
gpu::DeviceInfo::DeviceInfo
gpu::DeviceInfo::name
gpu::DeviceInfo::majorVersion
gpu::DeviceInfo::minorVersion
gpu::DeviceInfo::multiProcessorCount
gpu::DeviceInfo::freeMemory
gpu::DeviceInfo::totalMemory
gpu::DeviceInfo::supports
gpu::DeviceInfo::isCompatible
gpu::DeviceInfo::deviceID 

********************** Data Structures *******************************

---- OOP ----	
gpu::PtrStepSz
gpu::PtrStep
gpu::GpuMat
gpu::createContinuous
gpu::ensureSizeIsEnough
gpu::registerPageLocked
gpu::unregisterPageLocked
gpu::CudaMem
gpu::CudaMem::createMatHeader
gpu::CudaMem::createGpuMatHeader
gpu::CudaMem::canMapHostMemory
gpu::Stream
gpu::Stream::queryIfComplete
gpu::Stream::waitForCompletion
gpu::Stream::enqueueDownload
gpu::Stream::enqueueUpload
gpu::Stream::enqueueCopy
gpu::Stream::enqueueMemSet
gpu::Stream::enqueueConvert
gpu::Stream::enqueueHostCallback
gpu::StreamAccessor

********************** Operations on Matrices *******************************

---- Function ----
gpu::gemm
gpu::transpose
gpu::flip
gpu::LUT
gpu::merge
gpu::split
gpu::magnitude
gpu::magnitudeSqr
gpu::phase
gpu::cartToPolar
gpu::polarToCart
gpu::normalize

********************** Per-element Operations *******************************

---- Function ----
gpu::add
gpu::subtract
gpu::multiply
gpu::divide
gpu::addWeighted
gpu::abs
gpu::sqr
gpu::sqrt
gpu::exp
gpu::log
gpu::pow
gpu::absdiff
gpu::compare
gpu::bitwise_not
gpu::bitwise_or
gpu::bitwise_and
gpu::bitwise_xor
gpu::rshift
gpu::lshift
gpu::min
gpu::max

********************** Image Processing *******************************

---- Function ----
gpu::meanShiftFiltering
gpu::meanShiftProc
gpu::meanShiftSegmentation
gpu::integral
gpu::sqrIntegral
gpu::columnSum
gpu::cornerHarris
gpu::cornerMinEigenVal
gpu::mulSpectrums
gpu::mulAndScaleSpectrums
gpu::dft
gpu::ConvolveBuf
gpu::ConvolveBuf::create
gpu::convolve
gpu::MatchTemplateBuf
gpu::matchTemplate
gpu::remap
gpu::cvtColor
gpu::swapChannels
gpu::threshold
gpu::resize
gpu::warpAffine
gpu::buildWarpAffineMaps
gpu::warpPerspective
gpu::buildWarpPerspectiveMaps
gpu::rotate
gpu::copyMakeBorder
gpu::rectStdDev
gpu::evenLevels
gpu::histEven
gpu::histRange
gpu::calcHist
gpu::equalizeHist
gpu::buildWarpPlaneMaps
gpu::buildWarpCylindricalMaps
gpu::buildWarpSphericalMaps
gpu::pyrDown
gpu::pyrUp
gpu::blendLinear
gpu::bilateralFilter
gpu::nonLocalMeans
gpu::FastNonLocalMeansDenoising
gpu::FastNonLocalMeansDenoising::simpleMethod()
gpu::FastNonLocalMeansDenoising::labMethod()
gpu::alphaComp
gpu::Canny
gpu::HoughLines
gpu::HoughLinesDownload
gpu::HoughCircles
gpu::HoughCirclesDownload

********************** Matrix Reductions *******************************

---- Function ----
gpu::meanStdDev
gpu::norm
gpu::sum
gpu::absSum
gpu::sqrSum
gpu::minMax
gpu::minMaxLoc
gpu::countNonZero
gpu::reduce

********************** Object Detection *******************************

---- OOP ----
gpu::HOGDescriptor
gpu::HOGDescriptor::HOGDescriptor
gpu::HOGDescriptor::getDescriptorSize
gpu::HOGDescriptor::getBlockHistogramSize
gpu::HOGDescriptor::setSVMDetector
gpu::HOGDescriptor::getDefaultPeopleDetector
gpu::HOGDescriptor::getPeopleDetector48x96
gpu::HOGDescriptor::getPeopleDetector64x128
gpu::HOGDescriptor::detect
gpu::HOGDescriptor::detectMultiScale
gpu::HOGDescriptor::getDescriptors
gpu::CascadeClassifier_GPU
gpu::CascadeClassifier_GPU::CascadeClassifier_GPU
gpu::CascadeClassifier_GPU::empty
gpu::CascadeClassifier_GPU::load
gpu::CascadeClassifier_GPU::release
gpu::CascadeClassifier_GPU::detectMultiScale

********************** Feature Detection and Description *******************************

---- OOP ----
gpu::FAST_GPU
gpu::FAST_GPU::FAST_GPU
gpu::FAST_GPU::operator ()
gpu::FAST_GPU::downloadKeypoints
gpu::FAST_GPU::convertKeypoints
gpu::FAST_GPU::release
gpu::FAST_GPU::calcKeyPointsLocation
gpu::FAST_GPU::getKeyPoints
gpu::ORB_GPU
gpu::ORB_GPU::ORB_GPU
gpu::ORB_GPU::operator()
gpu::ORB_GPU::downloadKeyPoints
gpu::ORB_GPU::convertKeyPoints
gpu::ORB_GPU::release
gpu::BruteForceMatcher_GPU_base
gpu::BruteForceMatcher_GPU_base::match
gpu::BruteForceMatcher_GPU_base::makeGpuCollection
gpu::BruteForceMatcher_GPU_base::matchDownload
gpu::BruteForceMatcher_GPU_base::matchConvert
gpu::BruteForceMatcher_GPU_base::knnMatch
gpu::BruteForceMatcher_GPU_base::knnMatchDownload
gpu::BruteForceMatcher_GPU_base::knnMatchConvert
gpu::BruteForceMatcher_GPU_base::radiusMatch
gpu::BruteForceMatcher_GPU_base::radiusMatchDownload
gpu::BruteForceMatcher_GPU_base::radiusMatchConvert

********************** Image Filtering *******************************

---- OOP ----
gpu::BaseRowFilter_GPU
gpu::BaseColumnFilter_GPU
gpu::BaseFilter_GPU
gpu::FilterEngine_GPU
gpu::createFilter2D_GPU
gpu::createSeparableFilter_GPU
gpu::getRowSumFilter_GPU
gpu::getColumnSumFilter_GPU
gpu::createBoxFilter_GPU
gpu::boxFilter
gpu::blur
gpu::createMorphologyFilter_GPU
gpu::erode
gpu::dilate
gpu::morphologyEx
gpu::createLinearFilter_GPU
gpu::filter2D
gpu::Laplacian
gpu::getLinearRowFilter_GPU
gpu::getLinearColumnFilter_GPU
gpu::createSeparableLinearFilter_GPU
gpu::sepFilter2D
gpu::createDerivFilter_GPU
gpu::Sobel
gpu::Scharr
gpu::createGaussianFilter_GPU
gpu::GaussianBlur
gpu::getMaxFilter_GPU
gpu::getMinFilter_GPU

********************** Camera Calibration and 3D Reconstruction *******************************

---- OOP ----
gpu::StereoBM_GPU
gpu::StereoBM_GPU::StereoBM_GPU
gpu::StereoBM_GPU::operator ()
gpu::StereoBM_GPU::checkIfGpuCallReasonable
gpu::StereoBeliefPropagation
gpu::StereoBeliefPropagation::StereoBeliefPropagation
gpu::StereoBeliefPropagation::estimateRecommendedParams
gpu::StereoBeliefPropagation::operator ()
gpu::StereoConstantSpaceBP
gpu::StereoConstantSpaceBP::StereoConstantSpaceBP
gpu::StereoConstantSpaceBP::estimateRecommendedParams
gpu::StereoConstantSpaceBP::operator ()
gpu::DisparityBilateralFilter
gpu::DisparityBilateralFilter::DisparityBilateralFilter
gpu::DisparityBilateralFilter::operator ()
gpu::drawColorDisp
gpu::reprojectImageTo3D
gpu::solvePnPRansac

********************** Video Analysis *******************************

---- OOP ----
gpu::BroxOpticalFlow
gpu::GoodFeaturesToTrackDetector_GPU
gpu::GoodFeaturesToTrackDetector_GPU::GoodFeaturesToTrackDetector_GPU
gpu::GoodFeaturesToTrackDetector_GPU::operator ()
gpu::GoodFeaturesToTrackDetector_GPU::releaseMemory
gpu::FarnebackOpticalFlow
gpu::FarnebackOpticalFlow::operator ()
gpu::FarnebackOpticalFlow::releaseMemory
gpu::PyrLKOpticalFlow
gpu::PyrLKOpticalFlow::sparse
gpu::PyrLKOpticalFlow::dense
gpu::PyrLKOpticalFlow::releaseMemory
gpu::interpolateFrames
gpu::FGDStatModel
gpu::FGDStatModel::FGDStatModel
gpu::FGDStatModel::create
gpu::FGDStatModel::release
gpu::FGDStatModel::update
gpu::MOG_GPU
gpu::MOG_GPU::MOG_GPU
gpu::MOG_GPU::operator()
gpu::MOG_GPU::getBackgroundImage
gpu::MOG_GPU::release
gpu::MOG2_GPU
gpu::MOG2_GPU::MOG2_GPU
gpu::MOG2_GPU::operator()
gpu::MOG2_GPU::getBackgroundImage
gpu::MOG2_GPU::release
gpu::GMG_GPU
gpu::GMG_GPU::GMG_GPU
gpu::GMG_GPU::initialize
gpu::GMG_GPU::operator()
gpu::GMG_GPU::release
gpu::VideoWriter_GPU
gpu::VideoWriter_GPU::VideoWriter_GPU
gpu::VideoWriter_GPU::open
gpu::VideoWriter_GPU::isOpened
gpu::VideoWriter_GPU::close
gpu::VideoWriter_GPU::write
gpu::VideoWriter_GPU::EncoderParams
gpu::VideoWriter_GPU::EncoderParams::EncoderParams
gpu::VideoWriter_GPU::EncoderParams::load
gpu::VideoWriter_GPU::EncoderParams::save
gpu::VideoWriter_GPU::EncoderCallBack
gpu::VideoWriter_GPU::EncoderCallBack::acquireBitStream
gpu::VideoWriter_GPU::EncoderCallBack::releaseBitStream
gpu::VideoWriter_GPU::EncoderCallBack::onBeginFrame
gpu::VideoWriter_GPU::EncoderCallBack::onEndFrame
gpu::VideoReader_GPU
gpu::VideoReader_GPU::Codec
gpu::VideoReader_GPU::ChromaFormat
gpu::VideoReader_GPU::FormatInfo
gpu::VideoReader_GPU::VideoReader_GPU
gpu::VideoReader_GPU::open
gpu::VideoReader_GPU::isOpened
gpu::VideoReader_GPU::close
gpu::VideoReader_GPU::read
gpu::VideoReader_GPU::format
gpu::VideoReader_GPU::dumpFormat
gpu::VideoReader_GPU::VideoSource
gpu::VideoReader_GPU::VideoSource::format
gpu::VideoReader_GPU::VideoSource::start
gpu::VideoReader_GPU::VideoSource::stop
gpu::VideoReader_GPU::VideoSource::isStarted
gpu::VideoReader_GPU::VideoSource::hasError
gpu::VideoReader_GPU::VideoSource::parseVideoData
